-1441566294257787958,-2797226002914945270 6537443426532551781,485261546070817057 -6420032845022027774,-58821551757776452 8431882200291376545,8394888108617943824 -8608490908353381873,-8860761462066165484 -3355074296045512125,-919638578285400903 7074309248460160607,-2230050081515943316 -3373768462822999535,1413473309253243343 -6395786195716064889,6066179988636020588 -272434588526642283,-7117537799132925147 -6419338727781662725,5415126136035941905 -3194707957272938791,-8870993963068747058 -8662013347068455670,3168339749447619792 2649786259434987377,379643835200162603 -8432083614270702443,6407162878594470044 -5661516272235660536,-3529789167522510001 7324048935174473371,-9029193918533619701 -4642913251217857338,1700607486441875136 994264139011469965,5130245310959959038 -4765516830498746277,-4598274468693543471 6465197421525254332,7067124319833256550 6023814731386667542,9112820257026159914 4551264741692525606,2158301519371355179 3504662159930966227,-3795427049358698268 -8597187942791424773,-2826449519819773156 3598080064342863094,-6035871247788643871 1003142162027162521,7628310459094945763 443279956732849246,-5089123390840680411 -2385151970461376019,-836004602602452004 3032228555842176506,844285210769910489 459508302643440815,4160420537071374306 -1040014214458016863,3219417582802503873 -1213432578224383525,956336332252842326 -7094502042952535112,-7023799687243219228 -4033477132470961731,5621923684404125506 -5400302742690097656,-5011574459120324836 -1700982606416240352,-3179132747583832297 4364367823449210621,8163475256732401947 -2599042962747014174,-7840442396957746643 4453846396740690669,-6042787786348929218 6980521000588812620,-3682655078909768475 6229465713708605627,5393470743355950081 7379031588035682752,-4620094423934715212 -4119858164703054819,8617501783020744164 6960331041425891645,1529020143716065803 -7914880201648551127,-9175898849760960047 7896327716966976442,5282711724794942586 -7341574786896486973,1614818504576309176 -1278229137549002160,7334984196536967538 -8208900902621549406,-8153815260515375077 4172360449857289534,-1606189296734376385 -2853562760687508209,-2520707349081534325 -7560852462243035540,3627122877559962001 6863741688212488573,4541788731349061792 6048835820951020275,-1087993879847992535 7782298964467872491,8794757098258333858 7007384414696081261,-6327576809512586165 4004474118639568321,-9007716299216307978 -7680380547478544318,-6844149221998157691 3087364780329021380,108056250217095625 -797948480870731149,7037886152475331777 -8150334365462301423,-6694405621669401151 -5924364143917508972,2333255859887016123 4030571597925910439,-1056123822269417589 2831236618267873471,3706315295109652475 6273731201657344502,7804177472428152190 -492850699395539556,-276711405928535032 2273552995306625,7382992647477615705 -4779168830972651446,827856614797737905 -7979256495424795077,-5790064812335857663 3425933229097007741,-3442007586001381888 5984834165016543723,-7129604994733189656 5973124426662342245,-4647031838421588967 7690767483932634769,7711350454666326819 6898172677009932234,1774975127129458619 -321662024207497092,5977825471527956966 -7862819760360003096,-1866119097391501137 -6265869347615649943,-6952751679121216426 7985249909333458278,2024583490459831856 7136216347492314438,6180014784329333232 -1932736942798219949,-5915153610272964565 4034237728230772145,7294814375113350965 3960081869606315861,-3669868312376860629 -5998884857180169823,-5366656477071195033 -5260938358068292561,6871838686608587381 8696417223478988180,6121514042411854383 -55931272182634170,-5105865531138709892 -7490319647292920714,-7006921031901188378 -4768744053133710373,9186587307221737250 -4826764267173780749,159935930559000741 7335476017892901898,-126975658563387671 -1336269375925777736,-5239994229445120842 -6802590493765341446,7886281396351660599 2578960112067252510,-6243049238425559654 -2652707884364870582,5258286657560185403 958932546364715536,-5212517404748963969 2183939386595992659,2202502820103152486 1097451366338839336,7620241503450060443 -7490569460005163204,2980143472201292146 -3226069317466667248,4773406572310843302 -6841285137626008403,6113018435163915562 5581248105844464424,-4247353043823037066 3530962419346139398,-2416128422898723425 6651854194190877230,2515944231938102778 1569942935119182116,-8183742046098543223 713019362657078935,-3285820487378568754 -1253955162946894345,-8515722676890177389 -7380173525553889457,6618999821616642843 -3697390713419261994,-425370179017810581 -2777737040751289663,-7890775655560403895 -161614609789969146,1108255350252355687 -7958826930896598170,-6826647555745123294 6722386959173549248,2717067531535555192 -3334621124591313588,5399463042687568439 978864327105451836,6218865624301493916 1231693887210543619,-1908970250416914044 293806031908112153,-5339823485885572258 4881030330534182363,-7661370825312607644 -2081922060038558917,4786091071078072837 7763073899113103479,-5927540698901798012 -3714377902150404135,-1838087422730033772 8317796291338263063,-6703068921373051259 -8708147202093226340,-6355790120594413265 -3420108208879776501,8604258149737418737 -5903730154906080818,-7742558067892873334 -8032830057624675290,-2210570759586879238 5621036031903133428,1157327356429733834 7824872424027088421,8112528527519147021 -8258803275104848014,-3794445272368354802 291504380298265353,6955501235504088802 -81545835144098497,8970582808783678478 -5070231175158199566,-3959322337692448122 818040958639393398,6643115406836475227 8568178841807045239,-9194063170196194572 -5471394886270101786,-6090387296357198065 -1883577099422868496,-527288904808796149 -7772708974088049921,-8068907548776250108 -4336307397981451009,6773672263818165320 291542438641595775,-5979108127992892299 7297897952179149008,-5226050236176736516 -3199845535938756460,-576691464780473103 98119164518922872,4796025629705359240 -2784315943130894996,532046340580780776 416140486101829469,4287716799966577368 8973840974019760519,5745263230882599299 4177004410143618349,-6176364545561700694 -1342550832642852244,-3699457876994922386 3703350669538733000,9193814887991956454 188218945130332473,-7663451252786638681 2290987543988827023,1469226750695300706 -1087709278857578754,6574981451381861821 6286331056861954675,-4511409649354989063 -4410591193740440315,3038008403963186767 4049530052247770475,-8985124677775805598 -4987052809749664734,-5270383987367609704 -4539189793578067013,7699883184048711186 8252615252931563267,3929446706670410488 -47074997051075879,-401989041977222857 2152958010127726213,4367377195510381250 -3307176834307418173,-3118942728126286244 7353941811274057588,-5471367605012549266 5783557206640862427,-6185288696302273646 -5299640859713148483,-7810313829878158328 2674473285060348541,3912703220364213671 -3897179945212099689,6332581953411050156 6970726785871765206,-4263316019550615437 7625703810078961191,-594560174591147921 -412740499122406830,-2635226995330925906 -6137767783266472270,2417655596842390653 -2846724274670322387,328603615870294996 -7656132926483250697,5241995484153118631 2613608576026279401,-5003905268789412593 -938136173090094467,-7011077670854011206 6854561937792827499,545330225313373734 -1478327367709223842,-8435349713508585840 7103073147116085418,7554242406163047658 -6025808312406197881,-3893070749339929099 -4113047662898075890,-8809816760354785983 4396710031270079009,3065717242876975989 -6687844894029655062,-7798761819901630546 -962568681320168104,-8373942185781081090 -5823055880792067803,608503147269495505 1528052595132598647,-7956069259766275221 8401977511408144309,3260601539063444002 -5611969234066065571,2785983427343893755 -1948782612168716588,2891331595150345112 5525991652718261480,-7770504860852092146 -1988904451277636149,7220513109767055585 497470632383800278,4904602108495078357 245785411490651316,-1933526712372447626 -2781037497109218167,-3836564302425423738 -5773419584104674730,1555928587687678295 8058945498591223037,-1433162288879979808 -5971525930348658214,2891971218123154461 7265610188082447812,3787258002538196752 9199484772476380083,-2618887573323379915 -8337127766792758756,-8820037219901293224 -1084794660318879370,-7070731335775919591 8590238220303484080,7059341511276262044 -5853525053621325525,7051941248066735453 -6215566473772914349,5575979905097644213 4606966147055100411,1721584917861277355 9103248527113244908,1027964495672579353 -2993007231099639970,1932135479016294418 454156258237804445,3516070632517223869 -1198744250180554118,8055704071181045651 4041050592806501953,682089859473177054 -3232295388308886058,5078932153667503559 -3080538118029912514,2567935655873147146 4806442330089329561,7921478850408162708 5848964995974185585,2551836498827879948 2745604081123683895,-3628264778879831468 -9059485419425255186,2199136739401108006 8672478250008362581,-4733517878674186819 -2647163942554722233,-8298109488167604692 