8418210883923249982,-7492542172381876751 7102248250561530223,-5976440007852726893 7242231311487852272,7887135955244102797 -7286142798486952475,2663446146914346671 -373942873342315929,1757114471032433250 899788484480139087,-1317415723154837293 7161323286555140229,7048561756169572498 6098100817399261163,7359559421183262743 5298236974434114643,-706833435633445136 -2198171909605336255,-7192175025882953866 -2893761779554114900,1800502720370613401 7329444346421832698,122810048640694637 -7634439484708622709,-5032723680262952027 2309000802382087144,7824819284937560951 -3716611288461743207,-954759256090800316 1977734429968807471,109307543083771640 6780564509341650499,-6018477468058424772 -93406325428194419,2308790515406815642 -4316618412369339567,3519276958295781732 3248021470592941089,82468251510398442 -1409985847040090491,4867384951342482589 -4001954880429991015,8890772169397093328 -4347924850177255844,6821501755165377470 179739594491233002,7543159784545295438 -2709129431177671934,2316523883401816820 8353252309756569680,1751142791932721162 -6317040896723637884,-2478010537606337531 124080778591129353,-5932507042525235922 -902050720202089765,-5848885366402236988 72435116215499368,2051888762112253546 3498264508679575324,-1915552746231293574 6676621712605229837,-3706889819461442276 -5804906148028943187,8023944735518436604 -6683496773505460865,9054538834877146971 4676016209754515934,-8142800323745136020 2944097325229579381,-3318743666353316453 -3721072045433305896,6227961559325075106 -1014712532688837281,6018992930586757180 -3022045724706511380,7833290038424435224 8415017967882601435,-9070189874825909042 -1782066309595624703,-434912489140750122 -7294301248492550625,6958055247282978352 -2295510110277287874,-4461655647334454896 -2698746809578142494,-8569666500561910082 -8869631517210635713,-3444256976323310548 -8287142081104526875,-2404355218437178511 -4556370109143280416,8780605556259949419 -1817507162272217962,-8136559197285926467 -3260282429420949669,-8906824013304127820 -5577928583041966069,4118505435592012452 8531836679844916241,-1437714730167286519 7719134491859759780,-5783200513154642686 -41309375978999208,740135133455212284 8040815851087446577,-8959882401004188958 -3108798800905285249,-7931152768353838979 8058092907219420220,-563139657401800219 -7072416291066963687,983762662042834928 -1029487790033910594,7612274926791026316 7734545445580216810,4953318082631906174 9161174357760693172,3924152446610491967 -3137018474063105789,-3497447621300835293 -1698200976696771653,-7194002119887646407 5420986065700828306,4605225396424693169 6601693592684063555,1959609246971367981 7611899956154932668,-5846367749102833258 -578862592473050088,-372410018266816270 3324494851262734899,4415093496700301604 4713380144922065861,-4100806129779119911 -9036201253356763137,459589494339396489 -273829980269521183,-7115868892238755342 5086258344841898967,701825243278438893 -8741451438285431193,4827791368159733881 1791820590848445571,735070651923693831 8748160803431171107,-1766656221814967758 3401856393097197393,5283734986686834368 -8810032752202677157,-2094087748062217022 -4725566476310042652,5720369409717180550 7493130266118880976,1770797745796370980 -4940711621885531712,6986905199787274790 -4463417779300801828,8323801451644114712 39177015047907984,-898253119027100457 486179122277848076,1542959310128879020 -4457391262391660017,-3881797293569428698 1441815146642259938,-4774716604030642832 4820301837801157904,-969575059295831285 -2718084125021514776,-1426171627769930857 3563247041003613443,-5595663262105124227 8807813489057266155,-5306698024521932064 -1079983668779085844,-2238486043002821449 -473098913148836829,-6869798938379522259 -2957105143439910704,3928833645474494154 -7197353156952682312,-5330108458323010037 -4760800813323500800,1576663882512669943 -4013434636188037105,489374166579444470 2447674066970427827,4293884532811571562 5269759738084725258,15764247916720372 5842464163328304571,-1253080015389878419 9021244948978907843,-7631376742091402104 -2893750493315985121,4917452815394995653 -5061885560275588626,-6505520306125529736 6073813005149842826,-6918411948385560422 6058841768202923948,-9194086960726468465 -4930827801713995343,6674320596782957925 -6404000821295234820,-2136792925269675759 -221383787369412088,-2112254600576028290 210495755677616941,4766553032256461294 338607327906298921,3038142725821822440 -5520949005694947818,-6846954987091111215 185525476194473966,-3645696912442224637 -187870578074523711,-1596504636134124443 2175164459988753399,-4089675858273338448 1873584226141324704,-7427022152629285069 -1510445986203096059,-8004125414125671177 -6733003329742074533,-4076841307437523993 -1307605896783393698,5435263665336447296 5404182882833869893,6286397049581631419 -3168418521922864023,-4771029668554540396 -3733763980154952907,7992901872121770215 -6425212317768551071,6680673571233773803 -252497409855096677,-1748244825285587021 -6164135799863996167,-2986753754707724175 -6563798652270671969,681097721927825076 -4958759635231255497,-8054199701757637222 3444833986456645744,-7727817838746540025 7442587748567325301,-6303580394152541317 -4148659336847210151,1638114713465892616 249832205237178514,-837388698835041141 7724881002982595750,-6372412254798988516 -2300085363512771696,8794302931922707441 -5573676322208766914,-6008080580087984955 -7380013056989434703,-7751451266580029919 -6487598885282490920,677863797767057042 7836379468489239042,1975611734426497358 -4626458667267412583,5523876150645233975 198337410254902957,-3461869030259285076 -8268562500351919785,8802338694540293053 1189011448007848412,-6602940784816389029 -637855979653401235,2720865352139683912 2679235560852434582,-8654975924684427761 5066659693265395109,6156379271928129545 -4991496662717626890,-5672368112108420436 -2871368836782151623,-6573517701432235659 4322878531688526109,-8434457518197892972 -2520326223434735352,-8931464602953784773 -5570787042045336389,-3896129044994964418 -7741817947965171591,-6382648137625353429 -3620937948449036902,6963211834538177584 8485259075240496145,5135669064296042625 5948920888754902970,4641613630622268033 3659930171336539829,-4702476509117081666 2275882387558902047,7391912129035096391 672304763690140969,6349191264916710126 7038488535644905778,-6504521663297626070 -2810247331807389130,5227054359283784414 6608780886844918290,-7211055303017031491 -6940293340499263434,2274793592495223541 -5516977682430616513,6875426780988066710 -6507613642102183703,2850266279778790335 4653458188487848812,2828193062533840161 5685246741058776074,-2240129406664340876 2174179130833350886,3135555234280142909 1801355191119490324,489540407274151558 6900400890903748991,8095318846593141857 2322333143671209843,1951363966399306905 -8041713357808637603,4216536464043472560 6166749480485618402,3989511661228038968 2577229085070386983,-7932772180431779939 8559395603659471826,6656730649871320383 2385050947995056677,4874853772075914355 -1377545161834350009,2611798816479927039 5193394359479419813,-8721294299374141752 -6747628817949456024,-1830526129733559937 4909601688501272505,274266904866207893 -6150324214280622100,224261708976697945 -8576277255744794027,-2664849685974158745 6496868429305630027,-486929575209920471 -8190256139727445065,7081950990431409435 47623053015146569,5030643174922395150 -3582879557286182659,-8685549281998302237 -7326982170541879845,-1314718263609337011 7452549057117697172,-5959937649025315021 5213526932473138148,3278488864748904197 6449977798308121360,6633849050080908796 3276554643367469549,5070317306008198119 7090013543655452757,6271679730419111473 -8722356720044183675,-1610439723082608105 7753659871262743885,7970744051705141645 -6658907412397680641,4261345049117624738 6684566936029136292,863741592842822865 777526936676485019,-8355001312471565638 338123822154597174,8361747045547483084 4919279192788294182,6809396182037918802 5257148722145863096,6485238391363289963 -4748284559650287053,2453173379953983361 6106735424942994336,3834346187035722660 -1510681541585928921,4243377079024139075 1700136249787014418,-4007847299894723285 -324288556646890184,1872861271772377086 -4225080618819188657,3668326414591236312 -2769986655408886812,-789543118050508187 1745790616251486113,-4926642346463116162 4826932037569581988,7416588799011967883 7278803253966226231,9066910140647321215 -4307156016032305387,-3881779785467955563 -7122484629415683127,-1337753448811282679 