-7492542172381876751,-925668711541373214 -5976440007852726893,-1125808242708803315 7887135955244102797,3317376806977596538 2663446146914346671,4622696651572605792 1757114471032433250,-1383171597690117210 -1317415723154837293,417627238674698203 7048561756169572498,4236859030984838896 7359559421183262743,4989083835127027727 -706833435633445136,-4591403538800669525 -7192175025882953866,-9056397138221261505 1800502720370613401,1093259059183501524 122810048640694637,-7452254395062527333 -5032723680262952027,-5779580908737976844 7824819284937560951,8312923986389903504 -954759256090800316,4671370544552543511 109307543083771640,-2087041973052579157 -6018477468058424772,-762087041283225820 2308790515406815642,-2215384189978621219 3519276958295781732,797341454073557828 82468251510398442,-3330489722103339532 4867384951342482589,-3457399104302392099 8890772169397093328,-4888817288967102309 6821501755165377470,-2473576904988121675 7543159784545295438,-7722899379036528420 2316523883401816820,392605547775855118 1751142791932721162,8342348972020260775 -2478010537606337531,8795051434329975437 -5932507042525235922,5808426263934106579 -5848885366402236988,6750936086604326757 2051888762112253546,-2124323878327752889 -1915552746231293574,-1582711762448281753 -3706889819461442276,-2969731893143787592 8023944735518436604,-2219038587489493398 9054538834877146971,-2371042061371686160 -8142800323745136020,3466784113990620058 -3318743666353316453,374646341123737128 6227961559325075106,-2506889513891769176 6018992930586757180,-5004280397897919912 7833290038424435224,-4811244313717923831 -9070189874825909042,655171906943307664 -434912489140750122,2216978798736374817 6958055247282978352,336246001209572244 -4461655647334454896,6757165757611742807 -8569666500561910082,-7178330763569499046 -3444256976323310548,-6132855580175605355 -2404355218437178511,-7755246774167846286 8780605556259949419,-4224235447116669038 -8136559197285926467,-8492677714151407199 -8906824013304127820,-6279637630984474111 4118505435592012452,1459423147449953588 -1437714730167286519,-7094121949677629730 -5783200513154642686,-1935933978705117088 740135133455212284,-698825757476213025 -8959882401004188958,919066549916742393 -7931152768353838979,-7406792504450427418 -563139657401800219,-7494953249817619986 983762662042834928,6088653629024128767 7612274926791026316,-6582787136757115689 4953318082631906174,5758880545497428630 3924152446610491967,5361417269338366473 -3497447621300835293,6634466095363941066 -7194002119887646407,8892203096584418076 4605225396424693169,8420532611584030163 1959609246971367981,-8561302839655431517 -5846367749102833258,-1765532207052099401 -372410018266816270,951272610739866339 4415093496700301604,-7739588347963036494 -4100806129779119911,-612574015142945956 459589494339396489,8576611759017366682 -7115868892238755342,7389698872508276523 701825243278438893,-5788083588120337817 4827791368159733881,3913660070125697324 735070651923693831,-2526891242772139387 -1766656221814967758,-6981504581616203324 5283734986686834368,-8685591379784031726 -2094087748062217022,-7542623573444657466 5720369409717180550,-994802933407137900 1770797745796370980,9182816061794299659 6986905199787274790,-2046193577901743071 8323801451644114712,-3860383672343312882 -898253119027100457,859076103979192440 1542959310128879020,-2029138432406727068 -3881797293569428698,8339188555961088748 -4774716604030642832,3332901457388382907 -969575059295831285,-3850726778505326617 -1426171627769930857,4144255752791445626 -5595663262105124227,2032416221101510783 -5306698024521932064,-3501115464535334073 -2238486043002821449,3318469711781907287 -6869798938379522259,7342897851528359104 3928833645474494154,-971728502034583462 -5330108458323010037,-5919282458433859272 1576663882512669943,3184136930810830848 489374166579444470,3524060469608592664 4293884532811571562,-6741558599781999395 15764247916720372,-5285523986001445624 -1253080015389878419,-4589384147938426152 -7631376742091402104,-1389868206887505752 4917452815394995653,-2023702322079010531 -6505520306125529736,-6879338207308433224 -6918411948385560422,844598943235717602 -9194086960726468465,3135245192523544539 6674320596782957925,-1743492795068962588 -2136792925269675759,8540793746564910579 -2112254600576028290,2333638387945440385 4766553032256461294,-4977048787934078207 3038142725821822440,-3376750053728121331 -6846954987091111215,-6078840080923492585 -3645696912442224637,3460171436247750701 -1596504636134124443,1784375214208648152 -4089675858273338448,1914511398284585058 -7427022152629285069,5553437926487960370 -8004125414125671177,-8932172673380784368 -4076841307437523993,-7636899436529953091 5435263665336447296,-4127657768553053600 6286397049581631419,6756164141294050315 -4771029668554540396,7939448190477404393 7992901872121770215,-4259137891966817275 6680673571233773803,-255461253465222740 -1748244825285587021,2000742235140683701 -2986753754707724175,9150889554571720359 681097721927825076,5882700930342846906 -8054199701757637222,-5433784736720658881 -7727817838746540025,4282983852289894286 -6303580394152541317,-1139007354414783989 1638114713465892616,2510544623381317548 -837388698835041141,587556493597862661 -6372412254798988516,-1352468748183607234 8794302931922707441,-6494217568409935711 -6008080580087984955,-6864987171412799722 -7751451266580029919,-3315279750140086999 677863797767057042,5809735087515433902 1975611734426497358,8634752870793815206 5523876150645233975,-897417483377821391 -3461869030259285076,3263531620004382134 8802338694540293053,-533776194188373262 -6602940784816389029,5413929336808540637 2720865352139683912,-2083009372486282642 -8654975924684427761,5975740363831993213 6156379271928129545,7223705108516026979 -5672368112108420436,-7782879298883504291 -6573517701432235659,-9001857535495164306 -8434457518197892972,4111578986509366871 -8931464602953784773,-6994953247321031488 -3896129044994964418,-8979827986669250813 -6382648137625353429,-4322277988119026599 6963211834538177584,-3342273886089140682 5135669064296042625,4825815934173012871 4641613630622268033,7856209554332380672 -4702476509117081666,1042546337780541821 7391912129035096391,8778949557115553179 6349191264916710126,-7021496028606851101 -6504521663297626070,-533966872347279705 5227054359283784414,-2416807027476395291 -7211055303017031491,602274416172113188 2274793592495223541,4665499748004039892 6875426780988066710,-1358449098557450190 2850266279778790335,3657347362323393368 2828193062533840161,-7481651251021688977 -2240129406664340876,-3445117334394435178 3135555234280142909,-5309734365113493758 489540407274151558,-2290895598393641857 8095318846593141857,3451024336212660794 1951363966399306905,-4273697110070516738 4216536464043472560,3825176893765165038 3989511661228038968,8290482931995894255 -7932772180431779939,5355543095361392955 6656730649871320383,3230617820178759405 4874853772075914355,-7259904720070971016 2611798816479927039,-1234253654645577030 -8721294299374141752,3527899939894721944 -1830526129733559937,8578154947683015961 274266904866207893,-5183868593367480406 224261708976697945,5926062505303924159 -2664849685974158745,-7205617131990598838 -486929575209920471,-6009938854095709556 7081950990431409435,1108305149296035622 5030643174922395150,-5078266227937541701 -8685549281998302237,-6178315234425066702 -1314718263609337011,8641700434151216854 -5959937649025315021,-1492611408092382133 3278488864748904197,-8492015797222042325 6633849050080908796,5362917225320521464 5070317306008198119,-8346871949375667644 6271679730419111473,5085050799634987390 -1610439723082608105,-8113947630582759839 7970744051705141645,2722340150741666093 4261345049117624738,2397562363280055904 863741592842822865,-7548308528871959152 -8355001312471565638,7577474375795080594 8361747045547483084,-8699870867702080236 6809396182037918802,6718068698883338655 6485238391363289963,6704356960200398558 2453173379953983361,2295111179696303688 3834346187035722660,8505662461730834636 4243377079024139075,-2732695537438210154 -4007847299894723285,2307711050107708859 1872861271772377086,-1548572715125486910 3668326414591236312,556754204227952370 -789543118050508187,3559529773459395032 -4926642346463116162,3180851730211630111 7416588799011967883,6203223237128001749 9066910140647321215,2101030679096004162 -3881779785467955563,8188935801500260960 -1337753448811282679,8460238078226965738 