4238792297172746028,-1441566294257787958 -7022704972603368582,6537443426532551781 6478854396779804243,-6420032845022027774 1619973764800231261,8431882200291376545 -977491703290004267,-8608490908353381873 4274712874330913017,-3355074296045512125 -4844259166944217180,7074309248460160607 1960295153569756189,-3373768462822999535 329606207080044307,-6395786195716064889 7389972387659567447,-272434588526642283 1004212591745720802,-6419338727781662725 -6381042153367865776,-3194707957272938791 5493673597620835903,-8662013347068455670 -3029430094635149979,2649786259434987377 2024920735676232434,-8432083614270702443 9191305439758170521,-5661516272235660536 1705144983359146319,7324048935174473371 2942305764775982156,-4642913251217857338 -6124509449971429095,994264139011469965 -9082952774517261864,-4765516830498746277 4914422332351040727,6465197421525254332 3310109085296724160,6023814731386667542 -6709566261063880785,4551264741692525606 290764889427732044,3504662159930966227 -7023106611098353736,-8597187942791424773 2437791183445780797,3598080064342863094 -8631452621122108280,1003142162027162521 4645843434107831166,443279956732849246 3221156573063828045,-2385151970461376019 -3876513766612086986,3032228555842176506 -4619928839714815117,459508302643440815 -2179403368344486985,-1040014214458016863 257096245971541197,-1213432578224383525 -4328442343513797306,-7094502042952535112 -1588446551933163756,-4033477132470961731 -8034866871899129178,-5400302742690097656 4880115354000072621,-1700982606416240352 5918900993527939103,4364367823449210621 -8007258714004790766,-2599042962747014174 1588941389608238537,4453846396740690669 -3297865921679044133,6980521000588812620 6823807616644995965,6229465713708605627 -2758937164100967547,7379031588035682752 -4497643618317689374,-4119858164703054819 -8489351185141957412,6960331041425891645 -1355965022300040448,-7914880201648551127 5267704631947632588,7896327716966976442 5726756282320177741,-7341574786896486973 -6056755058987965413,-1278229137549002160 -2084027910572627145,-8208900902621549406 -2566171153122913134,4172360449857289534 5374270109769042505,-2853562760687508209 3933729584683086339,-7560852462243035540 7041213654148001507,6863741688212488573 -4960841941103027748,6048835820951020275 1869688010983345272,7782298964467872491 -679807605183495046,7007384414696081261 5003242180576739669,4004474118639568321 -3922214304232849636,-7680380547478544318 -3195421030546116990,3087364780329021380 -6239937671604600621,-797948480870731149 -3602004086577849010,-8150334365462301423 3591108284030492847,-5924364143917508972 -2974447775656492853,4030571597925910439 -6537551913377525961,2831236618267873471 4368835399624054939,6273731201657344502 769562105324074610,-492850699395539556 -7385266200472922311,2273552995306625 3951312216174913550,-4779168830972651446 -4677422765948898895,-7979256495424795077 16074356904374156,3425933229097007741 1144770829716645927,5984834165016543723 -1326092588240753245,5973124426662342245 3044626135110590027,7690767483932634769 -8673147804139390810,6898172677009932234 -5656163447320459862,-321662024207497092 -8717805215958047369,-7862819760360003096 -5228123046972685222,-6265869347615649943 8436910673916261517,7985249909333458278 5130512941887903918,7136216347492314438 7847890553071184513,-1932736942798219949 7117691970365428506,4034237728230772145 -290213557229455225,3960081869606315861 -7081202739458186759,-5998884857180169823 -1610900328540294852,-5260938358068292561 3628812807818709081,8696417223478988180 5161796803321344095,-55931272182634170 -3949503394515442512,-7490319647292920714 -4417843254088026875,-4768744053133710373 4666828336614780002,-4826764267173780749 -7208500359329514227,7335476017892901898 6576263605370898596,-1336269375925777736 -1083690902586319158,-6802590493765341446 3664089126358307159,2578960112067252510 -2605578773195314832,-2652707884364870582 4253584858384248429,958932546364715536 -4386442206699145153,2183939386595992659 -8717692869788899751,1097451366338839336 4510425987803871052,-7490569460005163204 -1547337254844176049,-3226069317466667248 728266702462092841,-6841285137626008403 -1333895062021427370,5581248105844464424 -1114833996447415973,3530962419346139398 -9167798426128979978,6651854194190877230 6613799110979373907,1569942935119182116 2572801124721490075,713019362657078935 -8677066233872479876,-1253955162946894345 761173703937246635,-7380173525553889457 4122760892437072569,-3697390713419261994 -7778231377397858058,-2777737040751289663 -946640740462386535,-161614609789969146 -3661269587067830124,-7958826930896598170 9007289583000447206,6722386959173549248 -2064841918096254853,-3334621124591313588 -7197729951406945722,978864327105451836 677276363206370424,1231693887210543619 5046017453977460113,293806031908112153 2780340494778425286,4881030330534182363 -2704169011039513908,-2081922060038558917 -1835533200211305468,7763073899113103479 5552465324880437905,-3714377902150404135 -1614727369965211793,8317796291338263063 -3382806751021912036,-8708147202093226340 -5184149940857642204,-3420108208879776501 -4800455850910597471,-5903730154906080818 -8203343256497997085,-8032830057624675290 -6778363388332867245,5621036031903133428 2509343122163316187,7824872424027088421 -6393495526236348785,-8258803275104848014 -7247005615802354150,291504380298265353 -8889036973639579986,-81545835144098497 9029553512850647701,-5070231175158199566 -7461156365475868591,818040958639393398 625884328389149333,8568178841807045239 -6884961891082251731,-5471394886270101786 2410866004231664669,-1883577099422868496 -2605127550845251591,-7772708974088049921 -2437364865836714288,-4336307397981451009 5687565689351296514,291542438641595775 -2071847716002412492,7297897952179149008 3776537000719229577,-3199845535938756460 -4894144794224282107,98119164518922872 2252269602550114240,-2784315943130894996 -4703857286068406802,416140486101829469 3727639868807191831,8973840974019760519 1999360135418082361,4177004410143618349 5042008709637774630,-1342550832642852244 5549578516178862190,3703350669538733000 7475232307656306215,188218945130332473 -3760214294684127726,2290987543988827023 -5487272172524283071,-1087709278857578754 -1774921407506965615,6286331056861954675 1372582789777253548,-4410591193740440315 4935594625528035147,4049530052247770475 -8189307276592277120,-4987052809749664734 -3160693390470644188,-4539189793578067013 6264682114107590661,8252615252931563267 449064039028298992,-47074997051075879 -6520335205638107462,2152958010127726213 6426119562433704411,-3307176834307418173 -1882574206261508320,7353941811274057588 401731489661411212,5783557206640862427 -5336789384118244818,-5299640859713148483 -6587176505424562212,2674473285060348541 -2435402008198950461,-3897179945212099689 -2707410766321149769,6970726785871765206 -7031143635487813273,7625703810078961191 3047967494453332755,-412740499122406830 3720112186424081653,-6137767783266472270 2518120658800027416,-2846724274670322387 2414137442330132091,-7656132926483250697 2390296692763133202,2613608576026279401 7949213843944105668,-938136173090094467 -7399892163106201224,6854561937792827499 -8533066992491741934,-1478327367709223842 3789428520430418538,7103073147116085418 -8527865011963424620,-6025808312406197881 -5523879650456689743,-4113047662898075890 -7462427274147054994,4396710031270079009 -3960137359778266008,-6687844894029655062 -9110233206608302430,-962568681320168104 5214552733522572301,-5823055880792067803 6428016664633676580,1528052595132598647 6784165023237963305,8401977511408144309 2825985806722171808,-5611969234066065571 -942548982981628507,-1948782612168716588 2244513208133830683,5525991652718261480 -5231608658489419437,-1988904451277636149 -5402072740878878617,497470632383800278 1687741300881796330,245785411490651316 6617601799534641908,-2781037497109218167 4217490996416996458,-5773419584104674730 -6625783209711243225,8058945498591223037 3079554712225503751,-5971525930348658214 7393875883088907059,7265610188082447812 -6580597199153000168,9199484772476380083 -1289579087015499631,-8337127766792758756 8155525996094798936,-1084794660318879370 2797164342129805513,8590238220303484080 -1198416194445409906,-5853525053621325525 639586568675270136,-6215566473772914349 -6328551064916377769,4606966147055100411 8315531050923727371,9103248527113244908 1060871752083345552,-2993007231099639970 -3970226890755028321,454156258237804445 -6856959821000491540,-1198744250180554118 -4723140452279678983,4041050592806501953 -1846636765358617468,-3232295388308886058 512602462156766648,-3080538118029912514 5718822893212059603,4806442330089329561 -8400801494802065471,5848964995974185585 882660697756147577,2745604081123683895 6860348680024147172,-9059485419425255186 -3938960371334175753,8672478250008362581 -7501470642987224759,-2647163942554722233 