-925668711541373214,8418210883923249982 -1125808242708803315,7102248250561530223 3317376806977596538,7242231311487852272 4622696651572605792,-7286142798486952475 -1383171597690117210,-373942873342315929 417627238674698203,899788484480139087 4236859030984838896,7161323286555140229 4989083835127027727,6098100817399261163 -4591403538800669525,5298236974434114643 -9056397138221261505,-2198171909605336255 1093259059183501524,-2893761779554114900 -7452254395062527333,7329444346421832698 -5779580908737976844,-7634439484708622709 8312923986389903504,2309000802382087144 4671370544552543511,-3716611288461743207 -2087041973052579157,1977734429968807471 -762087041283225820,6780564509341650499 -2215384189978621219,-93406325428194419 797341454073557828,-4316618412369339567 -3330489722103339532,3248021470592941089 -3457399104302392099,-1409985847040090491 -4888817288967102309,-4001954880429991015 -2473576904988121675,-4347924850177255844 -7722899379036528420,179739594491233002 392605547775855118,-2709129431177671934 8342348972020260775,8353252309756569680 8795051434329975437,-6317040896723637884 5808426263934106579,124080778591129353 6750936086604326757,-902050720202089765 -2124323878327752889,72435116215499368 -1582711762448281753,3498264508679575324 -2969731893143787592,6676621712605229837 -2219038587489493398,-5804906148028943187 -2371042061371686160,-6683496773505460865 3466784113990620058,4676016209754515934 374646341123737128,2944097325229579381 -2506889513891769176,-3721072045433305896 -5004280397897919912,-1014712532688837281 -4811244313717923831,-3022045724706511380 655171906943307664,8415017967882601435 2216978798736374817,-1782066309595624703 336246001209572244,-7294301248492550625 6757165757611742807,-2295510110277287874 -7178330763569499046,-2698746809578142494 -6132855580175605355,-8869631517210635713 -7755246774167846286,-8287142081104526875 -4224235447116669038,-4556370109143280416 -8492677714151407199,-1817507162272217962 -6279637630984474111,-3260282429420949669 1459423147449953588,-5577928583041966069 -7094121949677629730,8531836679844916241 -1935933978705117088,7719134491859759780 -698825757476213025,-41309375978999208 919066549916742393,8040815851087446577 -7406792504450427418,-3108798800905285249 -7494953249817619986,8058092907219420220 6088653629024128767,-7072416291066963687 -6582787136757115689,-1029487790033910594 5758880545497428630,7734545445580216810 5361417269338366473,9161174357760693172 6634466095363941066,-3137018474063105789 8892203096584418076,-1698200976696771653 8420532611584030163,5420986065700828306 -8561302839655431517,6601693592684063555 -1765532207052099401,7611899956154932668 951272610739866339,-578862592473050088 -7739588347963036494,3324494851262734899 -612574015142945956,4713380144922065861 8576611759017366682,-9036201253356763137 7389698872508276523,-273829980269521183 -5788083588120337817,5086258344841898967 3913660070125697324,-8741451438285431193 -2526891242772139387,1791820590848445571 -6981504581616203324,8748160803431171107 -8685591379784031726,3401856393097197393 -7542623573444657466,-8810032752202677157 -994802933407137900,-4725566476310042652 9182816061794299659,7493130266118880976 -2046193577901743071,-4940711621885531712 -3860383672343312882,-4463417779300801828 859076103979192440,39177015047907984 -2029138432406727068,486179122277848076 8339188555961088748,-4457391262391660017 3332901457388382907,1441815146642259938 -3850726778505326617,4820301837801157904 4144255752791445626,-2718084125021514776 2032416221101510783,3563247041003613443 -3501115464535334073,8807813489057266155 3318469711781907287,-1079983668779085844 7342897851528359104,-473098913148836829 -971728502034583462,-2957105143439910704 -5919282458433859272,-7197353156952682312 3184136930810830848,-4760800813323500800 3524060469608592664,-4013434636188037105 -6741558599781999395,2447674066970427827 -5285523986001445624,5269759738084725258 -4589384147938426152,5842464163328304571 -1389868206887505752,9021244948978907843 -2023702322079010531,-2893750493315985121 -6879338207308433224,-5061885560275588626 844598943235717602,6073813005149842826 3135245192523544539,6058841768202923948 -1743492795068962588,-4930827801713995343 8540793746564910579,-6404000821295234820 2333638387945440385,-221383787369412088 -4977048787934078207,210495755677616941 -3376750053728121331,338607327906298921 -6078840080923492585,-5520949005694947818 3460171436247750701,185525476194473966 1784375214208648152,-187870578074523711 1914511398284585058,2175164459988753399 5553437926487960370,1873584226141324704 -8932172673380784368,-1510445986203096059 -7636899436529953091,-6733003329742074533 -4127657768553053600,-1307605896783393698 6756164141294050315,5404182882833869893 7939448190477404393,-3168418521922864023 -4259137891966817275,-3733763980154952907 -255461253465222740,-6425212317768551071 2000742235140683701,-252497409855096677 9150889554571720359,-6164135799863996167 5882700930342846906,-6563798652270671969 -5433784736720658881,-4958759635231255497 4282983852289894286,3444833986456645744 -1139007354414783989,7442587748567325301 2510544623381317548,-4148659336847210151 587556493597862661,249832205237178514 -1352468748183607234,7724881002982595750 -6494217568409935711,-2300085363512771696 -6864987171412799722,-5573676322208766914 -3315279750140086999,-7380013056989434703 5809735087515433902,-6487598885282490920 8634752870793815206,7836379468489239042 -897417483377821391,-4626458667267412583 3263531620004382134,198337410254902957 -533776194188373262,-8268562500351919785 5413929336808540637,1189011448007848412 -2083009372486282642,-637855979653401235 5975740363831993213,2679235560852434582 7223705108516026979,5066659693265395109 -7782879298883504291,-4991496662717626890 -9001857535495164306,-2871368836782151623 4111578986509366871,4322878531688526109 -6994953247321031488,-2520326223434735352 -8979827986669250813,-5570787042045336389 -4322277988119026599,-7741817947965171591 -3342273886089140682,-3620937948449036902 4825815934173012871,8485259075240496145 7856209554332380672,5948920888754902970 1042546337780541821,3659930171336539829 8778949557115553179,2275882387558902047 -7021496028606851101,672304763690140969 -533966872347279705,7038488535644905778 -2416807027476395291,-2810247331807389130 602274416172113188,6608780886844918290 4665499748004039892,-6940293340499263434 -1358449098557450190,-5516977682430616513 3657347362323393368,-6507613642102183703 -7481651251021688977,4653458188487848812 -3445117334394435178,5685246741058776074 -5309734365113493758,2174179130833350886 -2290895598393641857,1801355191119490324 3451024336212660794,6900400890903748991 -4273697110070516738,2322333143671209843 3825176893765165038,-8041713357808637603 8290482931995894255,6166749480485618402 5355543095361392955,2577229085070386983 3230617820178759405,8559395603659471826 -7259904720070971016,2385050947995056677 -1234253654645577030,-1377545161834350009 3527899939894721944,5193394359479419813 8578154947683015961,-6747628817949456024 -5183868593367480406,4909601688501272505 5926062505303924159,-6150324214280622100 -7205617131990598838,-8576277255744794027 -6009938854095709556,6496868429305630027 1108305149296035622,-8190256139727445065 -5078266227937541701,47623053015146569 -6178315234425066702,-3582879557286182659 8641700434151216854,-7326982170541879845 -1492611408092382133,7452549057117697172 -8492015797222042325,5213526932473138148 5362917225320521464,6449977798308121360 -8346871949375667644,3276554643367469549 5085050799634987390,7090013543655452757 -8113947630582759839,-8722356720044183675 2722340150741666093,7753659871262743885 2397562363280055904,-6658907412397680641 -7548308528871959152,6684566936029136292 7577474375795080594,777526936676485019 -8699870867702080236,338123822154597174 6718068698883338655,4919279192788294182 6704356960200398558,5257148722145863096 2295111179696303688,-4748284559650287053 8505662461730834636,6106735424942994336 -2732695537438210154,-1510681541585928921 2307711050107708859,1700136249787014418 -1548572715125486910,-324288556646890184 556754204227952370,-4225080618819188657 3559529773459395032,-2769986655408886812 3180851730211630111,1745790616251486113 6203223237128001749,4826932037569581988 2101030679096004162,7278803253966226231 8188935801500260960,-4307156016032305387 8460238078226965738,-7122484629415683127 