-2797226002914945270,4238792297172746028 485261546070817057,-7022704972603368582 -58821551757776452,6478854396779804243 8394888108617943824,1619973764800231261 -8860761462066165484,-977491703290004267 -919638578285400903,4274712874330913017 -2230050081515943316,-4844259166944217180 1413473309253243343,1960295153569756189 6066179988636020588,329606207080044307 -7117537799132925147,7389972387659567447 5415126136035941905,1004212591745720802 -8870993963068747058,-6381042153367865776 3168339749447619792,5493673597620835903 379643835200162603,-3029430094635149979 6407162878594470044,2024920735676232434 -3529789167522510001,9191305439758170521 -9029193918533619701,1705144983359146319 1700607486441875136,2942305764775982156 5130245310959959038,-6124509449971429095 -4598274468693543471,-9082952774517261864 7067124319833256550,4914422332351040727 9112820257026159914,3310109085296724160 2158301519371355179,-6709566261063880785 -3795427049358698268,290764889427732044 -2826449519819773156,-7023106611098353736 -6035871247788643871,2437791183445780797 7628310459094945763,-8631452621122108280 -5089123390840680411,4645843434107831166 -836004602602452004,3221156573063828045 844285210769910489,-3876513766612086986 4160420537071374306,-4619928839714815117 3219417582802503873,-2179403368344486985 956336332252842326,257096245971541197 -7023799687243219228,-4328442343513797306 5621923684404125506,-1588446551933163756 -5011574459120324836,-8034866871899129178 -3179132747583832297,4880115354000072621 8163475256732401947,5918900993527939103 -7840442396957746643,-8007258714004790766 -6042787786348929218,1588941389608238537 -3682655078909768475,-3297865921679044133 5393470743355950081,6823807616644995965 -4620094423934715212,-2758937164100967547 8617501783020744164,-4497643618317689374 1529020143716065803,-8489351185141957412 -9175898849760960047,-1355965022300040448 5282711724794942586,5267704631947632588 1614818504576309176,5726756282320177741 7334984196536967538,-6056755058987965413 -8153815260515375077,-2084027910572627145 -1606189296734376385,-2566171153122913134 -2520707349081534325,5374270109769042505 3627122877559962001,3933729584683086339 4541788731349061792,7041213654148001507 -1087993879847992535,-4960841941103027748 8794757098258333858,1869688010983345272 -6327576809512586165,-679807605183495046 -9007716299216307978,5003242180576739669 -6844149221998157691,-3922214304232849636 108056250217095625,-3195421030546116990 7037886152475331777,-6239937671604600621 -6694405621669401151,-3602004086577849010 2333255859887016123,3591108284030492847 -1056123822269417589,-2974447775656492853 3706315295109652475,-6537551913377525961 7804177472428152190,4368835399624054939 -276711405928535032,769562105324074610 7382992647477615705,-7385266200472922311 827856614797737905,3951312216174913550 -5790064812335857663,-4677422765948898895 -3442007586001381888,16074356904374156 -7129604994733189656,1144770829716645927 -4647031838421588967,-1326092588240753245 7711350454666326819,3044626135110590027 1774975127129458619,-8673147804139390810 5977825471527956966,-5656163447320459862 -1866119097391501137,-8717805215958047369 -6952751679121216426,-5228123046972685222 2024583490459831856,8436910673916261517 6180014784329333232,5130512941887903918 -5915153610272964565,7847890553071184513 7294814375113350965,7117691970365428506 -3669868312376860629,-290213557229455225 -5366656477071195033,-7081202739458186759 6871838686608587381,-1610900328540294852 6121514042411854383,3628812807818709081 -5105865531138709892,5161796803321344095 -7006921031901188378,-3949503394515442512 9186587307221737250,-4417843254088026875 159935930559000741,4666828336614780002 -126975658563387671,-7208500359329514227 -5239994229445120842,6576263605370898596 7886281396351660599,-1083690902586319158 -6243049238425559654,3664089126358307159 5258286657560185403,-2605578773195314832 -5212517404748963969,4253584858384248429 2202502820103152486,-4386442206699145153 7620241503450060443,-8717692869788899751 2980143472201292146,4510425987803871052 4773406572310843302,-1547337254844176049 6113018435163915562,728266702462092841 -4247353043823037066,-1333895062021427370 -2416128422898723425,-1114833996447415973 2515944231938102778,-9167798426128979978 -8183742046098543223,6613799110979373907 -3285820487378568754,2572801124721490075 -8515722676890177389,-8677066233872479876 6618999821616642843,761173703937246635 -425370179017810581,4122760892437072569 -7890775655560403895,-7778231377397858058 1108255350252355687,-946640740462386535 -6826647555745123294,-3661269587067830124 2717067531535555192,9007289583000447206 5399463042687568439,-2064841918096254853 6218865624301493916,-7197729951406945722 -1908970250416914044,677276363206370424 -5339823485885572258,5046017453977460113 -7661370825312607644,2780340494778425286 4786091071078072837,-2704169011039513908 -5927540698901798012,-1835533200211305468 -1838087422730033772,5552465324880437905 -6703068921373051259,-1614727369965211793 -6355790120594413265,-3382806751021912036 8604258149737418737,-5184149940857642204 -7742558067892873334,-4800455850910597471 -2210570759586879238,-8203343256497997085 1157327356429733834,-6778363388332867245 8112528527519147021,2509343122163316187 -3794445272368354802,-6393495526236348785 6955501235504088802,-7247005615802354150 8970582808783678478,-8889036973639579986 -3959322337692448122,9029553512850647701 6643115406836475227,-7461156365475868591 -9194063170196194572,625884328389149333 -6090387296357198065,-6884961891082251731 -527288904808796149,2410866004231664669 -8068907548776250108,-2605127550845251591 6773672263818165320,-2437364865836714288 -5979108127992892299,5687565689351296514 -5226050236176736516,-2071847716002412492 -576691464780473103,3776537000719229577 4796025629705359240,-4894144794224282107 532046340580780776,2252269602550114240 4287716799966577368,-4703857286068406802 5745263230882599299,3727639868807191831 -6176364545561700694,1999360135418082361 -3699457876994922386,5042008709637774630 9193814887991956454,5549578516178862190 -7663451252786638681,7475232307656306215 1469226750695300706,-3760214294684127726 6574981451381861821,-5487272172524283071 -4511409649354989063,-1774921407506965615 3038008403963186767,1372582789777253548 -8985124677775805598,4935594625528035147 -5270383987367609704,-8189307276592277120 7699883184048711186,-3160693390470644188 3929446706670410488,6264682114107590661 -401989041977222857,449064039028298992 4367377195510381250,-6520335205638107462 -3118942728126286244,6426119562433704411 -5471367605012549266,-1882574206261508320 -6185288696302273646,401731489661411212 -7810313829878158328,-5336789384118244818 3912703220364213671,-6587176505424562212 6332581953411050156,-2435402008198950461 -4263316019550615437,-2707410766321149769 -594560174591147921,-7031143635487813273 -2635226995330925906,3047967494453332755 2417655596842390653,3720112186424081653 328603615870294996,2518120658800027416 5241995484153118631,2414137442330132091 -5003905268789412593,2390296692763133202 -7011077670854011206,7949213843944105668 545330225313373734,-7399892163106201224 -8435349713508585840,-8533066992491741934 7554242406163047658,3789428520430418538 -3893070749339929099,-8527865011963424620 -8809816760354785983,-5523879650456689743 3065717242876975989,-7462427274147054994 -7798761819901630546,-3960137359778266008 -8373942185781081090,-9110233206608302430 608503147269495505,5214552733522572301 -7956069259766275221,6428016664633676580 3260601539063444002,6784165023237963305 2785983427343893755,2825985806722171808 2891331595150345112,-942548982981628507 -7770504860852092146,2244513208133830683 7220513109767055585,-5231608658489419437 4904602108495078357,-5402072740878878617 -1933526712372447626,1687741300881796330 -3836564302425423738,6617601799534641908 1555928587687678295,4217490996416996458 -1433162288879979808,-6625783209711243225 2891971218123154461,3079554712225503751 3787258002538196752,7393875883088907059 -2618887573323379915,-6580597199153000168 -8820037219901293224,-1289579087015499631 -7070731335775919591,8155525996094798936 7059341511276262044,2797164342129805513 7051941248066735453,-1198416194445409906 5575979905097644213,639586568675270136 1721584917861277355,-6328551064916377769 1027964495672579353,8315531050923727371 1932135479016294418,1060871752083345552 3516070632517223869,-3970226890755028321 8055704071181045651,-6856959821000491540 682089859473177054,-4723140452279678983 5078932153667503559,-1846636765358617468 2567935655873147146,512602462156766648 7921478850408162708,5718822893212059603 2551836498827879948,-8400801494802065471 -3628264778879831468,882660697756147577 2199136739401108006,6860348680024147172 -4733517878674186819,-3938960371334175753 -8298109488167604692,-7501470642987224759 